digraph Tree {
node [shape=box] ;
0 [label="('climate', 'e') <= 0.5\nentropy = 0.99\nsamples = 1026\nvalue = [453, 573]"] ;
1 [label="('#climatechange', 'e') <= 0.5\nentropy = 0.994\nsamples = 506\nvalue = [276, 230]"] ;
0 -> 1 [labeldistance=2.5, labelangle=45, headlabel="True"] ;
2 [label="('at', 't') <= 0.5\nentropy = 0.963\nsamples = 397\nvalue = [243, 154]"] ;
1 -> 2 ;
3 [label="('in', 'n') <= 0.5\nentropy = 0.947\nsamples = 370\nvalue = [235, 135]"] ;
2 -> 3 ;
4 [label="('they', 'y') <= 0.5\nentropy = 0.896\nsamples = 269\nvalue = [185, 84]"] ;
3 -> 4 ;
5 [label="entropy = 0.92\nsamples = 251\nvalue = [167, 84]"] ;
4 -> 5 ;
6 [label="entropy = 0.0\nsamples = 18\nvalue = [18, 0]"] ;
4 -> 6 ;
7 [label="('report', 't') <= 0.5\nentropy = 1.0\nsamples = 101\nvalue = [50, 51]"] ;
3 -> 7 ;
8 [label="entropy = 0.998\nsamples = 95\nvalue = [50, 45]"] ;
7 -> 8 ;
9 [label="entropy = 0.0\nsamples = 6\nvalue = [0, 6]"] ;
7 -> 9 ;
10 [label="('the', 'e') <= 0.5\nentropy = 0.877\nsamples = 27\nvalue = [8, 19]"] ;
2 -> 10 ;
11 [label="entropy = 0.0\nsamples = 8\nvalue = [0, 8]"] ;
10 -> 11 ;
12 [label="('you', 'u') <= 0.5\nentropy = 0.982\nsamples = 19\nvalue = [8, 11]"] ;
10 -> 12 ;
13 [label="entropy = 0.837\nsamples = 15\nvalue = [4, 11]"] ;
12 -> 13 ;
14 [label="entropy = 0.0\nsamples = 4\nvalue = [4, 0]"] ;
12 -> 14 ;
15 [label="('to', 'o') <= 0.5\nentropy = 0.885\nsamples = 109\nvalue = [33, 76]"] ;
1 -> 15 ;
16 [label="('no', 'o') <= 0.5\nentropy = 0.971\nsamples = 65\nvalue = [26, 39]"] ;
15 -> 16 ;
17 [label="('this', 's') <= 0.5\nentropy = 0.951\nsamples = 62\nvalue = [23, 39]"] ;
16 -> 17 ;
18 [label="entropy = 0.984\nsamples = 54\nvalue = [23, 31]"] ;
17 -> 18 ;
19 [label="entropy = 0.0\nsamples = 8\nvalue = [0, 8]"] ;
17 -> 19 ;
20 [label="entropy = 0.0\nsamples = 3\nvalue = [3, 0]"] ;
16 -> 20 ;
21 [label="('on', 'n') <= 0.5\nentropy = 0.632\nsamples = 44\nvalue = [7, 37]"] ;
15 -> 21 ;
22 [label="('planet', 't') <= 0.5\nentropy = 0.323\nsamples = 34\nvalue = [2, 32]"] ;
21 -> 22 ;
23 [label="entropy = 0.0\nsamples = 32\nvalue = [0, 32]"] ;
22 -> 23 ;
24 [label="entropy = 0.0\nsamples = 2\nvalue = [2, 0]"] ;
22 -> 24 ;
25 [label="('are', 'e') <= 0.5\nentropy = 1.0\nsamples = 10\nvalue = [5, 5]"] ;
21 -> 25 ;
26 [label="entropy = 0.954\nsamples = 8\nvalue = [3, 5]"] ;
25 -> 26 ;
27 [label="entropy = 0.0\nsamples = 2\nvalue = [2, 0]"] ;
25 -> 27 ;
28 [label="('been', 'n') <= 0.5\nentropy = 0.925\nsamples = 520\nvalue = [177, 343]"] ;
0 -> 28 [labeldistance=2.5, labelangle=-45, headlabel="False"] ;
29 [label="('rt', 't') <= 0.5\nentropy = 0.91\nsamples = 504\nvalue = [164, 340]"] ;
28 -> 29 ;
30 [label="('into', 'o') <= 0.5\nentropy = 0.968\nsamples = 261\nvalue = [103, 158]"] ;
29 -> 30 ;
31 [label="('care', 'e') <= 0.5\nentropy = 0.975\nsamples = 253\nvalue = [103, 150]"] ;
30 -> 31 ;
32 [label="entropy = 0.981\nsamples = 246\nvalue = [103, 143]"] ;
31 -> 32 ;
33 [label="entropy = 0.0\nsamples = 7\nvalue = [0, 7]"] ;
31 -> 33 ;
34 [label="entropy = 0.0\nsamples = 8\nvalue = [0, 8]"] ;
30 -> 34 ;
35 [label="('some', 'e') <= 0.5\nentropy = 0.813\nsamples = 243\nvalue = [61, 182]"] ;
29 -> 35 ;
36 [label="('@tan123', '3') <= 0.5\nentropy = 0.798\nsamples = 240\nvalue = [58, 182]"] ;
35 -> 36 ;
37 [label="entropy = 0.782\nsamples = 237\nvalue = [55, 182]"] ;
36 -> 37 ;
38 [label="entropy = 0.0\nsamples = 3\nvalue = [3, 0]"] ;
36 -> 38 ;
39 [label="entropy = 0.0\nsamples = 3\nvalue = [3, 0]"] ;
35 -> 39 ;
40 [label="('it', 't') <= 0.5\nentropy = 0.696\nsamples = 16\nvalue = [13, 3]"] ;
28 -> 40 ;
41 [label="('on', 'n') <= 0.5\nentropy = 0.954\nsamples = 8\nvalue = [5, 3]"] ;
40 -> 41 ;
42 [label="('of', 'f') <= 0.5\nentropy = 0.65\nsamples = 6\nvalue = [5, 1]"] ;
41 -> 42 ;
43 [label="entropy = 0.0\nsamples = 3\nvalue = [3, 0]"] ;
42 -> 43 ;
44 [label="entropy = 0.918\nsamples = 3\nvalue = [2, 1]"] ;
42 -> 44 ;
45 [label="entropy = 0.0\nsamples = 2\nvalue = [0, 2]"] ;
41 -> 45 ;
46 [label="entropy = 0.0\nsamples = 8\nvalue = [8, 0]"] ;
40 -> 46 ;
}
