digraph Tree {
node [shape=box] ;
0 [label="('climate', 'e') <= 0.5\nentropy = 0.99\nsamples = 1025\nvalue = [453, 572]"] ;
1 [label="('#climatechange', 'e') <= 0.5\nentropy = 0.996\nsamples = 506\nvalue = [271, 235]"] ;
0 -> 1 [labeldistance=2.5, labelangle=45, headlabel="True"] ;
2 [label="('levels', 's') <= 0.5\nentropy = 0.963\nsamples = 395\nvalue = [242, 153]"] ;
1 -> 2 ;
3 [label="('limiting', 'g') <= 0.5\nentropy = 0.957\nsamples = 389\nvalue = [242, 147]"] ;
2 -> 3 ;
4 [label="('in', 'n') <= 0.5\nentropy = 0.951\nsamples = 384\nvalue = [242, 142]"] ;
3 -> 4 ;
5 [label="entropy = 0.913\nsamples = 293\nvalue = [197, 96]"] ;
4 -> 5 ;
6 [label="entropy = 1.0\nsamples = 91\nvalue = [45, 46]"] ;
4 -> 6 ;
7 [label="entropy = 0.0\nsamples = 5\nvalue = [0, 5]"] ;
3 -> 7 ;
8 [label="entropy = 0.0\nsamples = 6\nvalue = [0, 6]"] ;
2 -> 8 ;
9 [label="('to', 'o') <= 0.5\nentropy = 0.829\nsamples = 111\nvalue = [29, 82]"] ;
1 -> 9 ;
10 [label="('on', 'n') <= 0.5\nentropy = 0.945\nsamples = 69\nvalue = [25, 44]"] ;
9 -> 10 ;
11 [label="('no', 'o') <= 0.5\nentropy = 0.98\nsamples = 60\nvalue = [25, 35]"] ;
10 -> 11 ;
12 [label="entropy = 0.954\nsamples = 56\nvalue = [21, 35]"] ;
11 -> 12 ;
13 [label="entropy = 0.0\nsamples = 4\nvalue = [4, 0]"] ;
11 -> 13 ;
14 [label="entropy = 0.0\nsamples = 9\nvalue = [0, 9]"] ;
10 -> 14 ;
15 [label="('planet', 't') <= 0.5\nentropy = 0.454\nsamples = 42\nvalue = [4, 38]"] ;
9 -> 15 ;
16 [label="('by', 'y') <= 0.5\nentropy = 0.286\nsamples = 40\nvalue = [2, 38]"] ;
15 -> 16 ;
17 [label="entropy = 0.0\nsamples = 36\nvalue = [0, 36]"] ;
16 -> 17 ;
18 [label="entropy = 1.0\nsamples = 4\nvalue = [2, 2]"] ;
16 -> 18 ;
19 [label="entropy = 0.0\nsamples = 2\nvalue = [2, 0]"] ;
15 -> 19 ;
20 [label="('rt', 't') <= 0.5\nentropy = 0.935\nsamples = 519\nvalue = [182, 337]"] ;
0 -> 20 [labeldistance=2.5, labelangle=-45, headlabel="False"] ;
21 [label="('into', 'o') <= 0.5\nentropy = 0.991\nsamples = 265\nvalue = [118, 147]"] ;
20 -> 21 ;
22 [label="('get', 't') <= 0.5\nentropy = 0.997\nsamples = 253\nvalue = [118, 135]"] ;
21 -> 22 ;
23 [label="('corporations', 's') <= 0.5\nentropy = 0.999\nsamples = 241\nvalue = [117, 124]"] ;
22 -> 23 ;
24 [label="entropy = 0.998\nsamples = 236\nvalue = [112, 124]"] ;
23 -> 24 ;
25 [label="entropy = 0.0\nsamples = 5\nvalue = [5, 0]"] ;
23 -> 25 ;
26 [label="('investors', 's') <= 0.5\nentropy = 0.414\nsamples = 12\nvalue = [1, 11]"] ;
22 -> 26 ;
27 [label="entropy = 0.0\nsamples = 10\nvalue = [0, 10]"] ;
26 -> 27 ;
28 [label="entropy = 1.0\nsamples = 2\nvalue = [1, 1]"] ;
26 -> 28 ;
29 [label="entropy = 0.0\nsamples = 12\nvalue = [0, 12]"] ;
21 -> 29 ;
30 [label="('weather', 'r') <= 0.5\nentropy = 0.814\nsamples = 254\nvalue = [64, 190]"] ;
20 -> 30 ;
31 [label="('an', 'n') <= 0.5\nentropy = 0.797\nsamples = 249\nvalue = [60, 189]"] ;
30 -> 31 ;
32 [label="('why', 'y') <= 0.5\nentropy = 0.815\nsamples = 238\nvalue = [60, 178]"] ;
31 -> 32 ;
33 [label="entropy = 0.831\nsamples = 228\nvalue = [60, 168]"] ;
32 -> 33 ;
34 [label="entropy = 0.0\nsamples = 10\nvalue = [0, 10]"] ;
32 -> 34 ;
35 [label="entropy = 0.0\nsamples = 11\nvalue = [0, 11]"] ;
31 -> 35 ;
36 [label="('it', 't') <= 0.5\nentropy = 0.722\nsamples = 5\nvalue = [4, 1]"] ;
30 -> 36 ;
37 [label="entropy = 1.0\nsamples = 2\nvalue = [1, 1]"] ;
36 -> 37 ;
38 [label="entropy = 0.0\nsamples = 3\nvalue = [3, 0]"] ;
36 -> 38 ;
}
