digraph Tree {
node [shape=box] ;
0 [label="('climate', 'e') <= 0.5\nentropy = 0.99\nsamples = 1027\nvalue = [454, 573]"] ;
1 [label="('#climatechange', 'e') <= 0.5\nentropy = 0.991\nsamples = 502\nvalue = [279, 223]"] ;
0 -> 1 [labeldistance=2.5, labelangle=45, headlabel="True"] ;
2 [label="('in', 'n') <= 0.5\nentropy = 0.957\nsamples = 402\nvalue = [250, 152]"] ;
1 -> 2 ;
3 [label="('is', 's') <= 0.5\nentropy = 0.912\nsamples = 303\nvalue = [204, 99]"] ;
2 -> 3 ;
4 [label="('emissions', 's') <= 0.5\nentropy = 0.839\nsamples = 220\nvalue = [161, 59]"] ;
3 -> 4 ;
5 [label="('setting', 'g') <= 0.5\nentropy = 0.802\nsamples = 209\nvalue = [158, 51]"] ;
4 -> 5 ;
6 [label="entropy = 0.783\nsamples = 206\nvalue = [158, 48]"] ;
5 -> 6 ;
7 [label="entropy = 0.0\nsamples = 3\nvalue = [0, 3]"] ;
5 -> 7 ;
8 [label="('t', 't') <= 0.5\nentropy = 0.845\nsamples = 11\nvalue = [3, 8]"] ;
4 -> 8 ;
9 [label="entropy = 0.985\nsamples = 7\nvalue = [3, 4]"] ;
8 -> 9 ;
10 [label="entropy = 0.0\nsamples = 4\nvalue = [0, 4]"] ;
8 -> 10 ;
11 [label="('from', 'm') <= 0.5\nentropy = 0.999\nsamples = 83\nvalue = [43, 40]"] ;
3 -> 11 ;
12 [label="('don', 'n') <= 0.5\nentropy = 0.992\nsamples = 78\nvalue = [43, 35]"] ;
11 -> 12 ;
13 [label="entropy = 0.981\nsamples = 74\nvalue = [43, 31]"] ;
12 -> 13 ;
14 [label="entropy = 0.0\nsamples = 4\nvalue = [0, 4]"] ;
12 -> 14 ;
15 [label="entropy = 0.0\nsamples = 5\nvalue = [0, 5]"] ;
11 -> 15 ;
16 [label="('rt', 't') <= 0.5\nentropy = 0.996\nsamples = 99\nvalue = [46, 53]"] ;
2 -> 16 ;
17 [label="('and', 'd') <= 0.5\nentropy = 0.845\nsamples = 22\nvalue = [16, 6]"] ;
16 -> 17 ;
18 [label="entropy = 0.0\nsamples = 14\nvalue = [14, 0]"] ;
17 -> 18 ;
19 [label="('have', 'e') <= 0.5\nentropy = 0.811\nsamples = 8\nvalue = [2, 6]"] ;
17 -> 19 ;
20 [label="entropy = 0.0\nsamples = 6\nvalue = [0, 6]"] ;
19 -> 20 ;
21 [label="entropy = 0.0\nsamples = 2\nvalue = [2, 0]"] ;
19 -> 21 ;
22 [label="('all', 'l') <= 0.5\nentropy = 0.965\nsamples = 77\nvalue = [30, 47]"] ;
16 -> 22 ;
23 [label="('report', 't') <= 0.5\nentropy = 0.983\nsamples = 71\nvalue = [30, 41]"] ;
22 -> 23 ;
24 [label="entropy = 0.994\nsamples = 66\nvalue = [30, 36]"] ;
23 -> 24 ;
25 [label="entropy = 0.0\nsamples = 5\nvalue = [0, 5]"] ;
23 -> 25 ;
26 [label="entropy = 0.0\nsamples = 6\nvalue = [0, 6]"] ;
22 -> 26 ;
27 [label="('take', 'e') <= 0.5\nentropy = 0.869\nsamples = 100\nvalue = [29, 71]"] ;
1 -> 27 ;
28 [label="('global', 'l') <= 0.5\nentropy = 0.839\nsamples = 97\nvalue = [26, 71]"] ;
27 -> 28 ;
29 [label="('was', 's') <= 0.5\nentropy = 0.794\nsamples = 92\nvalue = [22, 70]"] ;
28 -> 29 ;
30 [label="('powerful', 'l') <= 0.5\nentropy = 0.764\nsamples = 90\nvalue = [20, 70]"] ;
29 -> 30 ;
31 [label="entropy = 0.731\nsamples = 88\nvalue = [18, 70]"] ;
30 -> 31 ;
32 [label="entropy = 0.0\nsamples = 2\nvalue = [2, 0]"] ;
30 -> 32 ;
33 [label="entropy = 0.0\nsamples = 2\nvalue = [2, 0]"] ;
29 -> 33 ;
34 [label="('#climatechangeisreal', 'l') <= 0.5\nentropy = 0.722\nsamples = 5\nvalue = [4, 1]"] ;
28 -> 34 ;
35 [label="entropy = 0.0\nsamples = 3\nvalue = [3, 0]"] ;
34 -> 35 ;
36 [label="entropy = 1.0\nsamples = 2\nvalue = [1, 1]"] ;
34 -> 36 ;
37 [label="entropy = 0.0\nsamples = 3\nvalue = [3, 0]"] ;
27 -> 37 ;
38 [label="('rt', 't') <= 0.5\nentropy = 0.918\nsamples = 525\nvalue = [175, 350]"] ;
0 -> 38 [labeldistance=2.5, labelangle=-45, headlabel="False"] ;
39 [label="('into', 'o') <= 0.5\nentropy = 0.983\nsamples = 267\nvalue = [113, 154]"] ;
38 -> 39 ;
40 [label="('know', 'w') <= 0.5\nentropy = 0.99\nsamples = 256\nvalue = [113, 143]"] ;
39 -> 40 ;
41 [label="('changing', 'g') <= 0.5\nentropy = 0.994\nsamples = 249\nvalue = [113, 136]"] ;
40 -> 41 ;
42 [label="('t', 't') <= 1.5\nentropy = 0.99\nsamples = 244\nvalue = [108, 136]"] ;
41 -> 42 ;
43 [label="entropy = 0.997\nsamples = 219\nvalue = [103, 116]"] ;
42 -> 43 ;
44 [label="entropy = 0.722\nsamples = 25\nvalue = [5, 20]"] ;
42 -> 44 ;
45 [label="entropy = 0.0\nsamples = 5\nvalue = [5, 0]"] ;
41 -> 45 ;
46 [label="entropy = 0.0\nsamples = 7\nvalue = [0, 7]"] ;
40 -> 46 ;
47 [label="entropy = 0.0\nsamples = 11\nvalue = [0, 11]"] ;
39 -> 47 ;
48 [label="('question', 'n') <= 0.5\nentropy = 0.796\nsamples = 258\nvalue = [62, 196]"] ;
38 -> 48 ;
49 [label="('un', 'n') <= 0.5\nentropy = 0.78\nsamples = 255\nvalue = [59, 196]"] ;
48 -> 49 ;
50 [label="('them', 'm') <= 0.5\nentropy = 0.808\nsamples = 238\nvalue = [59, 179]"] ;
49 -> 50 ;
51 [label="('your', 'r') <= 0.5\nentropy = 0.792\nsamples = 235\nvalue = [56, 179]"] ;
50 -> 51 ;
52 [label="entropy = 0.764\nsamples = 225\nvalue = [50, 175]"] ;
51 -> 52 ;
53 [label="entropy = 0.971\nsamples = 10\nvalue = [6, 4]"] ;
51 -> 53 ;
54 [label="entropy = 0.0\nsamples = 3\nvalue = [3, 0]"] ;
50 -> 54 ;
55 [label="entropy = 0.0\nsamples = 17\nvalue = [0, 17]"] ;
49 -> 55 ;
56 [label="entropy = 0.0\nsamples = 3\nvalue = [3, 0]"] ;
48 -> 56 ;
}
