digraph Tree {
node [shape=box] ;
0 [label="('change', 'e') <= 0.5\nentropy = 0.99\nsamples = 1027\nvalue = [454, 573]"] ;
1 [label="('#climatechange', 'e') <= 0.5\nentropy = 0.996\nsamples = 555\nvalue = [299, 256]"] ;
0 -> 1 [labeldistance=2.5, labelangle=45, headlabel="True"] ;
2 [label="('rt', 't') <= 0.5\nentropy = 0.971\nsamples = 449\nvalue = [269, 180]"] ;
1 -> 2 ;
3 [label="('don', 'n') <= 0.5\nentropy = 0.851\nsamples = 130\nvalue = [94, 36]"] ;
2 -> 3 ;
4 [label="entropy = 0.808\nsamples = 125\nvalue = [94, 31]"] ;
3 -> 4 ;
5 [label="entropy = 0.0\nsamples = 5\nvalue = [0, 5]"] ;
3 -> 5 ;
6 [label="('un', 'n') <= 0.5\nentropy = 0.993\nsamples = 319\nvalue = [175, 144]"] ;
2 -> 6 ;
7 [label="entropy = 0.988\nsamples = 309\nvalue = [174, 135]"] ;
6 -> 7 ;
8 [label="entropy = 0.469\nsamples = 10\nvalue = [1, 9]"] ;
6 -> 8 ;
9 [label="('take', 'e') <= 0.5\nentropy = 0.86\nsamples = 106\nvalue = [30, 76]"] ;
1 -> 9 ;
10 [label="('will', 'l') <= 0.5\nentropy = 0.83\nsamples = 103\nvalue = [27, 76]"] ;
9 -> 10 ;
11 [label="entropy = 0.869\nsamples = 93\nvalue = [27, 66]"] ;
10 -> 11 ;
12 [label="entropy = 0.0\nsamples = 10\nvalue = [0, 10]"] ;
10 -> 12 ;
13 [label="entropy = 0.0\nsamples = 3\nvalue = [3, 0]"] ;
9 -> 13 ;
14 [label="('rt', 't') <= 0.5\nentropy = 0.913\nsamples = 472\nvalue = [155, 317]"] ;
0 -> 14 [labeldistance=2.5, labelangle=-45, headlabel="False"] ;
15 [label="('good', 'd') <= 0.5\nentropy = 0.974\nsamples = 252\nvalue = [102, 150]"] ;
14 -> 15 ;
16 [label="('into', 'o') <= 0.5\nentropy = 0.965\nsamples = 246\nvalue = [96, 150]"] ;
15 -> 16 ;
17 [label="entropy = 0.976\nsamples = 235\nvalue = [96, 139]"] ;
16 -> 17 ;
18 [label="entropy = 0.0\nsamples = 11\nvalue = [0, 11]"] ;
16 -> 18 ;
19 [label="entropy = 0.0\nsamples = 6\nvalue = [6, 0]"] ;
15 -> 19 ;
20 [label="('report', 't') <= 0.5\nentropy = 0.797\nsamples = 220\nvalue = [53, 167]"] ;
14 -> 20 ;
21 [label="('on', 'n') <= 1.5\nentropy = 0.839\nsamples = 194\nvalue = [52, 142]"] ;
20 -> 21 ;
22 [label="entropy = 0.821\nsamples = 191\nvalue = [49, 142]"] ;
21 -> 22 ;
23 [label="entropy = 0.0\nsamples = 3\nvalue = [3, 0]"] ;
21 -> 23 ;
24 [label="('drastic', 'c') <= 0.5\nentropy = 0.235\nsamples = 26\nvalue = [1, 25]"] ;
20 -> 24 ;
25 [label="entropy = 0.0\nsamples = 24\nvalue = [0, 24]"] ;
24 -> 25 ;
26 [label="entropy = 1.0\nsamples = 2\nvalue = [1, 1]"] ;
24 -> 26 ;
}
