digraph Tree {
node [shape=box] ;
0 [label="('climate', 'e') <= 0.5\nentropy = 0.99\nsamples = 1026\nvalue = [453, 573]"] ;
1 [label="('#climatechange', 'e') <= 0.5\nentropy = 0.994\nsamples = 506\nvalue = [276, 230]"] ;
0 -> 1 [labeldistance=2.5, labelangle=45, headlabel="True"] ;
2 [label="('at', 't') <= 0.5\nentropy = 0.963\nsamples = 397\nvalue = [243, 154]"] ;
1 -> 2 ;
3 [label="('in', 'n') <= 0.5\nentropy = 0.947\nsamples = 370\nvalue = [235, 135]"] ;
2 -> 3 ;
4 [label="('they', 'y') <= 0.5\nentropy = 0.896\nsamples = 269\nvalue = [185, 84]"] ;
3 -> 4 ;
5 [label="('would', 'd') <= 0.5\nentropy = 0.92\nsamples = 251\nvalue = [167, 84]"] ;
4 -> 5 ;
6 [label="entropy = 0.906\nsamples = 246\nvalue = [167, 79]"] ;
5 -> 6 ;
7 [label="entropy = 0.0\nsamples = 5\nvalue = [0, 5]"] ;
5 -> 7 ;
8 [label="entropy = 0.0\nsamples = 18\nvalue = [18, 0]"] ;
4 -> 8 ;
9 [label="('report', 't') <= 0.5\nentropy = 1.0\nsamples = 101\nvalue = [50, 51]"] ;
3 -> 9 ;
10 [label="('people', 'e') <= 0.5\nentropy = 0.998\nsamples = 95\nvalue = [50, 45]"] ;
9 -> 10 ;
11 [label="entropy = 1.0\nsamples = 90\nvalue = [45, 45]"] ;
10 -> 11 ;
12 [label="entropy = 0.0\nsamples = 5\nvalue = [5, 0]"] ;
10 -> 12 ;
13 [label="entropy = 0.0\nsamples = 6\nvalue = [0, 6]"] ;
9 -> 13 ;
14 [label="('the', 'e') <= 0.5\nentropy = 0.877\nsamples = 27\nvalue = [8, 19]"] ;
2 -> 14 ;
15 [label="entropy = 0.0\nsamples = 8\nvalue = [0, 8]"] ;
14 -> 15 ;
16 [label="('you', 'u') <= 0.5\nentropy = 0.982\nsamples = 19\nvalue = [8, 11]"] ;
14 -> 16 ;
17 [label="('no', 'o') <= 0.5\nentropy = 0.837\nsamples = 15\nvalue = [4, 11]"] ;
16 -> 17 ;
18 [label="entropy = 0.619\nsamples = 13\nvalue = [2, 11]"] ;
17 -> 18 ;
19 [label="entropy = 0.0\nsamples = 2\nvalue = [2, 0]"] ;
17 -> 19 ;
20 [label="entropy = 0.0\nsamples = 4\nvalue = [4, 0]"] ;
16 -> 20 ;
21 [label="('to', 'o') <= 0.5\nentropy = 0.885\nsamples = 109\nvalue = [33, 76]"] ;
1 -> 21 ;
22 [label="('no', 'o') <= 0.5\nentropy = 0.971\nsamples = 65\nvalue = [26, 39]"] ;
21 -> 22 ;
23 [label="('this', 's') <= 0.5\nentropy = 0.951\nsamples = 62\nvalue = [23, 39]"] ;
22 -> 23 ;
24 [label="('from', 'm') <= 0.5\nentropy = 0.984\nsamples = 54\nvalue = [23, 31]"] ;
23 -> 24 ;
25 [label="entropy = 0.966\nsamples = 51\nvalue = [20, 31]"] ;
24 -> 25 ;
26 [label="entropy = 0.0\nsamples = 3\nvalue = [3, 0]"] ;
24 -> 26 ;
27 [label="entropy = 0.0\nsamples = 8\nvalue = [0, 8]"] ;
23 -> 27 ;
28 [label="entropy = 0.0\nsamples = 3\nvalue = [3, 0]"] ;
22 -> 28 ;
29 [label="('on', 'n') <= 0.5\nentropy = 0.632\nsamples = 44\nvalue = [7, 37]"] ;
21 -> 29 ;
30 [label="('planet', 't') <= 0.5\nentropy = 0.323\nsamples = 34\nvalue = [2, 32]"] ;
29 -> 30 ;
31 [label="entropy = 0.0\nsamples = 32\nvalue = [0, 32]"] ;
30 -> 31 ;
32 [label="entropy = 0.0\nsamples = 2\nvalue = [2, 0]"] ;
30 -> 32 ;
33 [label="('just', 't') <= 0.5\nentropy = 1.0\nsamples = 10\nvalue = [5, 5]"] ;
29 -> 33 ;
34 [label="('the', 'e') <= 2.5\nentropy = 0.954\nsamples = 8\nvalue = [3, 5]"] ;
33 -> 34 ;
35 [label="entropy = 0.65\nsamples = 6\nvalue = [1, 5]"] ;
34 -> 35 ;
36 [label="entropy = 0.0\nsamples = 2\nvalue = [2, 0]"] ;
34 -> 36 ;
37 [label="entropy = 0.0\nsamples = 2\nvalue = [2, 0]"] ;
33 -> 37 ;
38 [label="('been', 'n') <= 0.5\nentropy = 0.925\nsamples = 520\nvalue = [177, 343]"] ;
0 -> 38 [labeldistance=2.5, labelangle=-45, headlabel="False"] ;
39 [label="('rt', 't') <= 0.5\nentropy = 0.91\nsamples = 504\nvalue = [164, 340]"] ;
38 -> 39 ;
40 [label="('into', 'o') <= 0.5\nentropy = 0.968\nsamples = 261\nvalue = [103, 158]"] ;
39 -> 40 ;
41 [label="('care', 'e') <= 0.5\nentropy = 0.975\nsamples = 253\nvalue = [103, 150]"] ;
40 -> 41 ;
42 [label="('responsible', 'e') <= 0.5\nentropy = 0.981\nsamples = 246\nvalue = [103, 143]"] ;
41 -> 42 ;
43 [label="entropy = 0.976\nsamples = 242\nvalue = [99, 143]"] ;
42 -> 43 ;
44 [label="entropy = 0.0\nsamples = 4\nvalue = [4, 0]"] ;
42 -> 44 ;
45 [label="entropy = 0.0\nsamples = 7\nvalue = [0, 7]"] ;
41 -> 45 ;
46 [label="entropy = 0.0\nsamples = 8\nvalue = [0, 8]"] ;
40 -> 46 ;
47 [label="('some', 'e') <= 0.5\nentropy = 0.813\nsamples = 243\nvalue = [61, 182]"] ;
39 -> 47 ;
48 [label="('@tan123', '3') <= 0.5\nentropy = 0.798\nsamples = 240\nvalue = [58, 182]"] ;
47 -> 48 ;
49 [label="('will', 'l') <= 0.5\nentropy = 0.782\nsamples = 237\nvalue = [55, 182]"] ;
48 -> 49 ;
50 [label="entropy = 0.745\nsamples = 222\nvalue = [47, 175]"] ;
49 -> 50 ;
51 [label="entropy = 0.997\nsamples = 15\nvalue = [8, 7]"] ;
49 -> 51 ;
52 [label="entropy = 0.0\nsamples = 3\nvalue = [3, 0]"] ;
48 -> 52 ;
53 [label="entropy = 0.0\nsamples = 3\nvalue = [3, 0]"] ;
47 -> 53 ;
54 [label="('it', 't') <= 0.5\nentropy = 0.696\nsamples = 16\nvalue = [13, 3]"] ;
38 -> 54 ;
55 [label="('on', 'n') <= 0.5\nentropy = 0.954\nsamples = 8\nvalue = [5, 3]"] ;
54 -> 55 ;
56 [label="('have', 'e') <= 0.5\nentropy = 0.65\nsamples = 6\nvalue = [5, 1]"] ;
55 -> 56 ;
57 [label="entropy = 0.918\nsamples = 3\nvalue = [2, 1]"] ;
56 -> 57 ;
58 [label="entropy = 0.0\nsamples = 3\nvalue = [3, 0]"] ;
56 -> 58 ;
59 [label="entropy = 0.0\nsamples = 2\nvalue = [0, 2]"] ;
55 -> 59 ;
60 [label="entropy = 0.0\nsamples = 8\nvalue = [8, 0]"] ;
54 -> 60 ;
}
